{"muscle_k_to_vertex_q.0.weight": [[0.43444007635116577, 1.1874921321868896], [-1.3529995679855347, -1.109279751777649], [-1.5485944747924805, -0.02183908224105835], [1.1547623872756958, 1.393831491470337], [-0.540843665599823, 0.8584874868392944], [-0.41320329904556274, -0.4405812621116638], [-2.2519099712371826, -0.509902834892273], [-0.2914857566356659, 0.026193737983703613], [0.9714784622192383, 0.0981367975473404], [-0.8508622646331787, -0.5178487300872803], [1.3309258222579956, 0.6684340238571167], [-0.6554282903671265, 1.7453596591949463], [-0.6433281898498535, 0.4280809760093689], [1.164169430732727, -1.3064687252044678], [-1.1099852323532104, -0.6264429092407227], [-0.2756301760673523, 0.6109407544136047], [-1.4248284101486206, -0.2726394534111023], [-0.90679532289505, -0.9431755542755127], [-0.5970544815063477, 1.2330769300460815], [0.31552404165267944, 0.34271520376205444], [0.3217403292655945, -1.9266417026519775], [0.2202652394771576, -1.6696193218231201], [-1.5247735977172852, -1.1133686304092407], [1.9502016305923462, 0.9166867136955261], [-0.5753777623176575, -0.048071276396512985], [1.100030541419983, 0.6200509071350098], [1.0790494680404663, 0.061467014253139496], [1.4844071865081787, -1.0681110620498657], [0.44494661688804626, -1.4954133033752441], [-1.089988350868225, -0.6359905004501343], [0.3199467062950134, 0.2843703627586365], [-0.4188564717769623, 0.21362197399139404]], "muscle_k_to_vertex_q.0.bias": [0.7203564643859863, 0.442773699760437, 0.40044495463371277, 0.04978369176387787, 0.9493792057037354, 1.0766925811767578, -0.6002014875411987, -0.2591332197189331, 0.4630277156829834, 1.0448322296142578, 0.9758419394493103, 1.136297345161438, 0.7968258857727051, -1.220007061958313, 0.6993964314460754, -0.4423697888851166, -0.7283509373664856, 1.0175343751907349, 0.8764448761940002, -0.7053587436676025, 0.11739569902420044, -0.18691518902778625, 0.25515884160995483, -0.5483766198158264, 0.8621553182601929, -0.6939137578010559, 0.45923709869384766, 0.28851109743118286, 0.7244603633880615, 0.6253855228424072, -0.699848473072052, -0.45869797468185425], "muscle_k_to_vertex_q.2.weight": [[0.7663991451263428, -0.07532144337892532, -0.44033151865005493, -0.2383275330066681, 0.3270425796508789, 0.05214015766978264, -0.06990821659564972, -0.04449200630187988, 0.010199329815804958, -0.07515367120504379, 0.17686903476715088, 0.03713202849030495, -0.1570611149072647, -0.9371199607849121, -0.3057877719402313, 0.10489533841609955, -1.1174297332763672, 0.03244779631495476, -0.3477519452571869, -0.1490727663040161, -0.30055880546569824, -0.3005216419696808, -0.7004284262657166, -0.4215407967567444, -0.021313518285751343, 1.3925135135650635, 0.06361877918243408, 0.09409070014953613, -0.27914556860923767, -0.269273579120636, -0.044252485036849976, -0.08611028641462326], [1.3173307180404663, -0.11639361083507538, -0.17013761401176453, 1.3122053146362305, 0.21234628558158875, 0.020555919036269188, 1.6035850048065186, -0.01817268133163452, 0.8108558654785156, -0.10374780744314194, 0.9133002161979675, -0.27712345123291016, 0.26550567150115967, -0.18116939067840576, 0.10807842016220093, -0.012784779071807861, 0.5871067643165588, -0.23630130290985107, -0.7149966359138489, -0.0011459589004516602, -0.33235710859298706, -0.5535450577735901, -0.45795130729675293, -0.04765506461262703, -0.041816938668489456, 3.7209434509277344, 0.8746317028999329, 0.0021545812487602234, 0.0818205252289772, -0.22949470579624176, -0.0373724102973938, -0.07167810946702957], [0.548148512840271, -0.19184808433055878, -0.5100504159927368, -1.130141258239746, 0.6876274943351746, 0.1112649142742157, -0.8753580451011658, 0.06659163534641266, -0.48133090138435364, 0.18092358112335205, 0.17713361978530884, 1.2904083728790283, 0.641298770904541, -0.9401353597640991, -0.15867416560649872, 0.11184613406658173, -1.7338050603866577, 0.01763157546520233, 0.8441306352615356, -0.14285239577293396, -0.2742187976837158, -0.8963181972503662, -0.4836512804031372, -1.5345652103424072, 0.32613858580589294, -0.21506892144680023, -0.4298354685306549, -0.38677144050598145, -0.30958133935928345, 0.18907026946544647, 0.14035682380199432, 0.12095500528812408], [0.05845006927847862, -0.14626918733119965, -0.5890225172042847, -0.7244960069656372, 0.21982964873313904, 0.3765431046485901, -0.2800600528717041, -0.0038567781448364258, -0.031813040375709534, 0.23331576585769653, 0.0004376532160677016, 0.23827190697193146, 0.443173885345459, -0.6069287061691284, -0.2074682116508484, 0.1491091400384903, -0.6703467965126038, 0.10224107652902603, 0.47004252672195435, -0.03494548797607422, 0.27043449878692627, -0.10199206322431564, -0.38097354769706726, -0.9637120366096497, 0.1914706975221634, -1.3104407787322998, 0.08204849809408188, -0.04360118508338928, 0.23344570398330688, 0.17732782661914825, 0.0638582855463028, 0.005005091428756714], [0.12276598811149597, 1.4191521406173706, 1.324211835861206, -0.04097243398427963, 0.42707720398902893, -0.10922368615865707, 1.1122612953186035, 0.14580674469470978, -0.10882032662630081, 0.11102620512247086, -0.012932714074850082, 0.23571795225143433, 0.3904862403869629, -0.9745093584060669, 0.6212787628173828, 0.05199404060840607, 0.7146939635276794, -0.07493606954813004, 0.09233745187520981, 0.00028298795223236084, -0.4538262188434601, -1.735442876815796, 0.1646304577589035, -0.45015302300453186, 0.05112791061401367, 1.0453017950057983, -0.2200012058019638, -0.3741037845611572, -0.204244926571846, 0.5065332651138306, -0.10495127737522125, -0.06537888199090958], [-0.4191652834415436, 0.7159435749053955, -0.6608771681785583, 0.28060537576675415, -0.8230655789375305, 0.3182896673679352, -0.7189275026321411, 0.13567997515201569, -0.25781503319740295, 0.05915779247879982, -0.24375243484973907, -0.2147139459848404, 0.5099572539329529, -0.42060068249702454, 0.1814407855272293, -0.08309872448444366, -1.7615399360656738, 0.16423329710960388, -0.10697603970766068, -0.15760982036590576, 0.5316986441612244, -0.16532720625400543, 0.3735298812389374, 0.1661301553249359, 0.23420633375644684, -0.060635484755039215, -0.4621363580226898, 0.21040335297584534, 0.25636905431747437, 0.5870890021324158, -0.0592627227306366, 0.05207052826881409], [-0.29964205622673035, -0.4596032500267029, 0.19099514186382294, 0.37734436988830566, -0.49406886100769043, -0.15644089877605438, 0.5276520252227783, -0.10897041857242584, 0.39962145686149597, -0.3065025508403778, 0.19603517651557922, -0.5448768138885498, -0.536101758480072, 1.054572582244873, -0.6356654167175293, 0.04073020815849304, 1.131529450416565, -0.2316310554742813, 0.04156939685344696, 0.0752943605184555, 0.3153386414051056, 0.7153324484825134, 0.3380635678768158, 1.111287236213684, -0.15327751636505127, -2.5052692890167236, 0.3926807641983032, 0.4530777931213379, 0.06810927391052246, -0.44104495644569397, 0.07309699058532715, 0.013855382800102234], [0.10401903837919235, 0.07822439074516296, 0.5005946159362793, 1.3334317207336426, -0.2113312929868698, 0.02004086785018444, 0.29735156893730164, 0.02368861436843872, 0.1726774424314499, -0.19717878103256226, -0.16178882122039795, -0.2347729504108429, 0.00232136994600296, 0.6950274109840393, -0.037120308727025986, 0.06916257739067078, 0.559023916721344, 0.07375163584947586, 0.3838765323162079, 0.13695840537548065, -0.11200506240129471, -0.024714050814509392, 0.7111742496490479, 1.9621025323867798, -0.22465504705905914, 1.0858384370803833, 0.15462635457515717, 0.13092255592346191, -0.20026591420173645, 0.021307580173015594, -0.0619712695479393, 0.13812564313411713], [0.19172754883766174, 0.5022284984588623, -0.08370406180620193, 0.21783077716827393, 0.07660582661628723, 0.15325230360031128, -0.5062046647071838, 0.03992590308189392, -0.2135482132434845, -0.05394747108221054, -0.08659874647855759, -0.10681137442588806, 0.13850371539592743, -0.5668964982032776, 0.3812863230705261, -0.1578696221113205, -1.3632957935333252, 0.037048451602458954, -1.0265944004058838, 0.12275312840938568, -0.17711102962493896, -0.4212973117828369, -0.19508706033229828, 0.12125097215175629, 0.23708656430244446, 1.13190758228302, 0.06380771100521088, 0.1716902256011963, 0.18361078202724457, 0.18903782963752747, 0.07778210937976837, 0.15749572217464447], [0.4733135402202606, 0.14580731093883514, -1.1905505657196045, 0.24042508006095886, -0.26151829957962036, 0.014335556887090206, -0.44957467913627625, -0.04221734404563904, -0.05225655063986778, -0.1911255419254303, 0.016204487532377243, -0.7229964137077332, -0.23850299417972565, -0.9813380241394043, -0.3384084701538086, 0.13663168251514435, -1.6740174293518066, -0.07668288052082062, -1.374291181564331, 0.16246624290943146, 0.042561475187540054, -0.11595065146684647, -0.554718554019928, -0.16169634461402893, -0.21987704932689667, 0.9167441725730896, 0.02225116454064846, 0.1883077770471573, 0.19076871871948242, -0.11584245413541794, -0.12501968443393707, -0.05908459424972534], [0.5946670174598694, 0.09244563430547714, -0.05125068873167038, 0.2771300971508026, 0.31114649772644043, -0.08752129971981049, 0.8252829909324646, 0.08476217091083527, -0.09974370896816254, -0.07780607789754868, -0.15548741817474365, 0.015583201311528683, 0.23141822218894958, -0.008214878849685192, 0.06824834644794464, 0.06571264564990997, 0.29260915517807007, 0.059816114604473114, -0.43063560128211975, -0.06333643198013306, -0.08560167253017426, -0.4543698728084564, -0.117241270840168, -1.1786823272705078, -0.07501471042633057, 0.7600879073143005, -0.20655372738838196, -0.06126943975687027, -0.26840582489967346, 0.34681960940361023, -0.07071471959352493, 0.05177508294582367], [-0.8682026863098145, -0.14487700164318085, -0.11143020540475845, -0.7098032832145691, 0.08770379424095154, 0.08739404380321503, 0.17814821004867554, 0.14753495156764984, -0.5956459641456604, 0.06645718961954117, -0.7169447541236877, -0.7179674506187439, -0.033052146434783936, 0.34949827194213867, 0.042219385504722595, -0.1387982964515686, -0.5288285613059998, 0.08239883929491043, -0.5474649667739868, -0.11827833950519562, -0.055176932364702225, -0.013547003269195557, -0.11045284569263458, -0.6346881985664368, 0.0937792956829071, -0.07393120974302292, -0.5406826734542847, -0.3034178912639618, -0.13313870131969452, 0.14766675233840942, -0.10012900084257126, 0.08504651486873627], [0.8539595603942871, -0.42599719762802124, 0.8097130656242371, 0.9973351955413818, 0.24392299354076385, -0.13070307672023773, 2.0828380584716797, 0.09781806170940399, 0.773716151714325, -1.0047636032104492, 0.7228844165802002, 0.5536012053489685, -0.3793056011199951, -0.004510003142058849, -3.353074550628662, -0.019220948219299316, 1.2212153673171997, -1.1208003759384155, 0.916283905506134, 0.1616670936346054, -0.7240475416183472, 0.000870619376655668, -1.3857280015945435, 1.2980117797851562, -0.33854106068611145, -3.2314164638519287, 0.7875761389732361, 0.40601882338523865, -0.18729865550994873, -3.2809884548187256, -0.05086103081703186, 0.10929419100284576], [-0.8792990446090698, 0.22838349640369415, 0.14256133139133453, 0.8631730675697327, -0.5556475520133972, -0.15386049449443817, 0.0942954570055008, -0.017588704824447632, 0.04055855795741081, -0.26724278926849365, -0.2159106582403183, -1.469340443611145, -0.3029630184173584, 0.643729031085968, 0.0028980455826967955, -0.04756779968738556, 0.35271117091178894, -0.2450602501630783, -0.6033680438995361, 0.17265252768993378, -0.04326651617884636, 0.19690176844596863, 0.6957849860191345, 0.722902238368988, -0.24025146663188934, -2.0873255729675293, -0.05364827811717987, 0.04883430525660515, -0.15568338334560394, -0.17331519722938538, -0.040537700057029724, -0.08565950393676758], [-0.19498606026172638, -1.8294508457183838, -0.6803259253501892, 0.2597046494483948, -0.5763804316520691, 0.017379039898514748, -2.7674577236175537, -0.169468954205513, 0.24504664540290833, -0.367625892162323, 0.04653824493288994, -0.7083730697631836, 0.07274901121854782, 0.059956010431051254, -1.0320158004760742, 0.008449390530586243, -1.4043296575546265, -0.39240822196006775, -0.26113227009773254, 0.08895693719387054, -0.2997950613498688, 0.5814002752304077, 1.4649415016174316, 0.48015162348747253, 0.06236574053764343, -1.2598069906234741, 0.2386256456375122, 0.1123797744512558, -0.15709808468818665, -1.0461595058441162, -0.013152718544006348, 0.14630703628063202], [0.00011986801109742373, -0.8633148670196533, 0.15537185966968536, 0.29813718795776367, -0.15513449907302856, -0.21875646710395813, -0.4145853519439697, 0.04430012404918671, 0.1394577920436859, -0.20989468693733215, 0.08085720986127853, -0.22352643311023712, 0.17843197286128998, 0.8996099233627319, -0.388986736536026, -0.15587587654590607, 0.391871839761734, 0.10210239142179489, 0.12643876671791077, 0.07705827057361603, -0.017470363527536392, 0.6433220505714417, 0.7328514456748962, 0.5844525694847107, -0.2768731415271759, -1.0928785800933838, 0.03718854859471321, 0.29925164580345154, -0.038140568882226944, -0.47390931844711304, 0.09261558949947357, -0.08177554607391357], [-0.6546751260757446, -0.12798506021499634, 0.38606125116348267, 0.9840365052223206, 0.4108538329601288, -0.04606979712843895, 0.15794020891189575, 0.1537574678659439, 0.14207084476947784, 0.0010153517359867692, 0.2641647458076477, 0.6084624528884888, 0.1947198063135147, 0.48587068915367126, -0.05303319916129112, -0.1724776327610016, 0.2532683312892914, -0.19404089450836182, 1.7318289279937744, -0.0291939377784729, -0.3194085657596588, -0.23263317346572876, 0.29320916533470154, 1.172084093093872, 0.11996585130691528, -0.7189115285873413, 0.12810346484184265, -0.2179701328277588, -0.1522306352853775, -0.20255626738071442, -0.133172407746315, 0.07661546766757965], [0.5130850672721863, 0.023641763255000114, 0.5442540645599365, 0.5741246938705444, -0.649785041809082, -0.06351856142282486, -1.4698420763015747, 0.14539892971515656, -0.0034759945701807737, -0.2519170343875885, 0.1491210013628006, 0.7471755743026733, -0.40570834279060364, 0.3004355728626251, -0.22313737869262695, -0.07971199601888657, -0.27121418714523315, -0.010721218772232533, 0.274985134601593, 0.06322033703327179, -0.006940759718418121, 0.16039443016052246, 0.2774796783924103, 0.5655519962310791, -0.3199579417705536, 1.531842827796936, 0.11262786388397217, 0.3706008493900299, -0.032808221876621246, 0.015491253696382046, -0.17100146412849426, -0.025477707386016846], [-0.4905838072299957, -0.34782901406288147, -0.32773318886756897, -0.11332850903272629, -0.4140714108943939, -0.049888890236616135, -0.45546668767929077, -0.04783102869987488, 0.44189295172691345, -0.23640544712543488, 0.09936495125293732, -0.6065387725830078, -0.5224291086196899, 1.054661750793457, -0.5389782786369324, -0.1464560627937317, 0.1276308298110962, 0.01558389887213707, -0.020645076408982277, -0.10904782265424728, 0.41782495379447937, 0.958174467086792, 0.1544901430606842, -0.06907901167869568, -0.05008271709084511, -1.2363208532333374, 0.37336814403533936, 0.4135708212852478, 0.1308746039867401, -0.4203115999698639, -0.15811485052108765, 0.04026256501674652], [-0.8239908814430237, -0.17300628125667572, 0.31018880009651184, -0.4162665605545044, -0.6134021878242493, -0.2576644718647003, -0.78280109167099, -0.08395615965127945, -0.6805707812309265, -0.31371715664863586, -0.40013638138771057, -0.48530855774879456, -0.7146338820457458, 1.8280644416809082, 0.1346389204263687, 0.1508743315935135, 0.1748148798942566, -0.12691499292850494, -0.35183385014533997, -0.10460542142391205, 0.19417224824428558, 1.5019522905349731, 0.7486448287963867, -0.08725015819072723, -0.31222406029701233, -0.7997774481773376, -0.5444515943527222, 0.06644465774297714, -0.13301818072795868, -0.1293475180864334, -0.12357266247272491, 0.1504795402288437], [2.019866466522217, -0.7472108602523804, -0.8274589776992798, -1.4238835573196411, 0.17662879824638367, 0.033074721693992615, -1.08700430393219, -0.05002497136592865, 0.921358048915863, -0.04085488244891167, 1.0299816131591797, 2.049182653427124, 0.08183082938194275, -0.5938112735748291, -0.6822934746742249, 7.304549217224121e-05, 1.5539387464523315, -0.11109480261802673, 1.8189369440078735, 0.04015006124973297, -0.32695719599723816, -0.38316503167152405, -1.0540375709533691, 0.7361462116241455, -0.04693100228905678, 1.253729224205017, 0.6467259526252747, 0.4183223247528076, 0.06188485771417618, -0.6136749982833862, -0.038079023361206055, 0.15336792171001434], [1.1156381368637085, -0.39585861563682556, -0.4960746169090271, -0.636345386505127, 0.3319840729236603, -0.00660620117560029, 1.7598156929016113, -0.11270347237586975, 0.7048793435096741, -0.285521000623703, 0.7623030543327332, 1.1338324546813965, -0.13672426342964172, -0.19518302381038666, -0.2541685700416565, 0.010198131203651428, 1.6425729990005493, -0.2937668263912201, 1.6516669988632202, -0.17220798134803772, -0.32678863406181335, -0.2051103264093399, -0.40494418144226074, -0.23575958609580994, 0.04997856542468071, -0.8374301791191101, 0.44296151399612427, -0.0803801491856575, -0.2504567801952362, -0.37029480934143066, -0.028469860553741455, -0.031265705823898315], [0.41341084241867065, -0.07566463202238083, -0.21848653256893158, -1.017462134361267, 0.7655683159828186, 0.5944377183914185, 1.6357313394546509, -0.10240006446838379, -0.053425777703523636, 0.6285431981086731, -0.10139984637498856, 1.6705845594406128, 0.9722231030464172, -1.2390674352645874, 0.0874038115143776, 0.07649563252925873, 0.9761974215507507, 0.671012818813324, 1.4351897239685059, 0.08020584285259247, 0.29065483808517456, -0.756826639175415, 0.0031527013052254915, -2.058626651763916, 0.6211220026016235, -3.4534993171691895, -0.12933406233787537, -0.2130996137857437, 0.12693221867084503, 0.025958316400647163, 0.11205695569515228, -0.03578054904937744], [-0.30479609966278076, -0.30042508244514465, -0.57265305519104, -0.44482821226119995, 1.7999217510223389, 0.5988439917564392, -1.980741024017334, 0.04623088240623474, -0.1597086787223816, 0.7251127362251282, -0.006475183181464672, -0.30608803033828735, 1.6304570436477661, -0.9060999751091003, 0.024920502677559853, 0.13044939935207367, -1.922082543373108, 0.49432626366615295, -0.22522346675395966, 0.12239442765712738, 0.1690862625837326, -0.6683529615402222, -0.2601469159126282, -1.00613272190094, 0.9103447794914246, -1.4816616773605347, -0.018117954954504967, -0.1642913669347763, 0.4153894782066345, 0.2801614999771118, 0.0357690155506134, -0.01177804172039032], [0.11320637911558151, -0.33737751841545105, -0.17163123190402985, 0.09215812385082245, -0.3021027445793152, -0.0668494924902916, 0.7771504521369934, -0.033388689160346985, -0.21191109716892242, -0.27082356810569763, -0.0902312621474266, 0.1144045889377594, 0.3208295404911041, 0.6797009110450745, -0.3090015649795532, -0.011022806167602539, 1.6477749347686768, -0.3754422068595886, 0.5539369583129883, 0.16591571271419525, 0.1436460316181183, 0.24961547553539276, 0.5055679082870483, -0.13361304998397827, -0.1286170333623886, -0.8263314366340637, -0.10930301249027252, 0.11145243793725967, 0.004607003647834063, -0.06314091384410858, -0.07572895288467407, 0.0814971774816513], [-0.26395413279533386, -0.37594226002693176, 0.06509622186422348, -0.010588555596768856, 0.20813150703907013, 0.40590858459472656, 0.8983942866325378, 0.1186864823102951, 0.21970318257808685, -0.016994541510939598, -0.08917855471372604, 0.19097396731376648, 0.5184048414230347, -0.21794280409812927, -0.14807064831256866, 0.06205344200134277, 1.1778088808059692, 0.05366894230246544, 0.9695871472358704, 0.06438761949539185, 0.05155966803431511, -0.02684609778225422, 0.1391102522611618, -0.274544358253479, 0.31047698855400085, -1.3300280570983887, -0.0816640704870224, 0.15765810012817383, 0.2694554924964905, -0.33674877882003784, 0.06710182130336761, -0.13803505897521973], [0.6569905281066895, -0.08258706331253052, -0.36278852820396423, -0.8402292132377625, -0.3559267818927765, 0.27260059118270874, 0.45504799485206604, 0.10830752551555634, 0.3242484927177429, 0.022964313626289368, 0.33653023838996887, -1.1543278694152832, 0.10245539247989655, -1.3823806047439575, -0.1835002303123474, 0.031301647424697876, -0.11805890500545502, 0.1488863080739975, -1.9067938327789307, -0.16667801141738892, 0.27475541830062866, -0.34913215041160583, -0.3841402530670166, -0.660661518573761, -0.042397018522024155, -0.8180691599845886, 0.3521013557910919, 0.31634634733200073, 0.20930609107017517, -0.11698088049888611, 0.058813780546188354, 0.00794173777103424], [-0.06384734809398651, -0.03500043600797653, -0.3681943416595459, -0.8540859818458557, -0.48678261041641235, 0.641417920589447, 0.37181660532951355, -0.10756680369377136, 0.1698124259710312, 0.5754728317260742, 0.15982797741889954, -1.0183329582214355, 0.6571440696716309, -1.0076229572296143, -0.18734323978424072, 0.015279963612556458, 0.14962224662303925, 0.6397615671157837, -1.5333211421966553, 0.09572552144527435, 0.6120675206184387, -0.10519137233495712, 0.008187313564121723, -0.72939532995224, 0.7179810404777527, -1.6070969104766846, 0.03139350190758705, 0.2988327443599701, 0.48696282505989075, 0.07211402803659439, 0.015241354703903198, 0.13798455893993378], [-0.3945211172103882, -0.8447183966636658, -0.759641170501709, 0.026866493746638298, -0.9718547463417053, -0.17471808195114136, 0.028957659378647804, -0.03398941457271576, 0.17746475338935852, -0.36389410495758057, 0.14779891073703766, -2.4411935806274414, -0.20590093731880188, 0.6666853427886963, -0.8002913594245911, -0.11915664374828339, -0.44570955634117126, -0.23080959916114807, -2.242034912109375, 0.02934768795967102, 0.2987109422683716, 0.19366466999053955, 0.06970622390508652, 0.9345155358314514, -0.0683182030916214, -1.5810750722885132, 0.15443390607833862, 0.45864272117614746, 0.28827571868896484, -0.7254883646965027, -0.10258235037326813, 0.07813499867916107], [0.3980865776538849, 0.19920866191387177, -0.5345904231071472, 0.017850950360298157, -0.16247044503688812, 0.15507958829402924, 0.07085301727056503, 0.025715693831443787, -0.1075580045580864, 0.23169951140880585, -0.019839515909552574, -0.6433232426643372, -0.515553891658783, -0.10870268940925598, 0.16772550344467163, 0.10849754512310028, -0.6369741559028625, 0.46049466729164124, -1.5902308225631714, -0.10127099603414536, 0.26150521636009216, 0.26345008611679077, 0.3302365839481354, 0.2955608069896698, -0.1797572374343872, 1.1211180686950684, -0.10453611612319946, 0.06341218948364258, 0.2317669540643692, 0.4090089797973633, -0.1553744673728943, -0.01598474383354187], [-0.25869831442832947, -0.2783131003379822, 0.7032976150512695, -1.0644418001174927, 0.4309248924255371, 0.3150642216205597, 0.18565252423286438, 0.16970254480838776, -0.3644176125526428, 0.14857277274131775, -0.3130483031272888, 1.1057443618774414, 0.9546099305152893, 0.28458157181739807, 0.2396123707294464, -0.017466753721237183, 0.6078993678092957, 0.09304305911064148, 1.8264148235321045, -0.17577677965164185, -0.24178221821784973, -0.3979395031929016, 0.004287178628146648, -1.2411011457443237, 0.44569775462150574, -1.5068873167037964, -0.25328129529953003, -0.3616785407066345, -0.039655812084674835, 0.43862515687942505, 0.076841339468956, -0.015037357807159424], [-0.27874526381492615, -0.6768468022346497, -1.2351635694503784, -0.6974765062332153, 0.2679491937160492, 0.38400137424468994, 1.4679374694824219, -0.04117108881473541, -0.07149329036474228, 0.11237961798906326, -0.019243678078055382, 0.6502450704574585, 0.46665680408477783, -0.43404120206832886, -0.027023090049624443, 0.13045893609523773, 1.3551700115203857, 0.29757454991340637, 1.06146240234375, -0.1504937708377838, 0.2232578992843628, -0.0315527580678463, -0.7257440090179443, -1.20546555519104, 0.2615932822227478, -1.4043121337890625, -0.2478911578655243, -0.21991218626499176, 0.1401520073413849, -0.2128095179796219, -0.15487056970596313, -0.06810962408781052], [0.07856103777885437, -1.1278349161148071, -1.5566459894180298, 0.38202157616615295, -0.8366852402687073, -0.1773807555437088, 1.573801875114441, -0.1225481927394867, 0.2229613959789276, -1.7512344121932983, -0.011603561230003834, -0.6932145953178406, 0.17270898818969727, -0.23097112774848938, -0.6212769150733948, -0.08538580685853958, 1.718519926071167, -1.6011677980422974, -0.07430710643529892, -0.17608371376991272, -0.49791020154953003, -0.012786876410245895, -0.1615738719701767, 0.15385770797729492, 0.2902534306049347, -0.6973607540130615, 0.21200859546661377, -0.16607697308063507, -0.11909963190555573, -0.6000550389289856, 0.10868315398693085, -0.16734258830547333], [0.49864310026168823, -0.5230072736740112, 2.0078024864196777, 0.07093997299671173, 0.21015387773513794, 0.31315240263938904, -2.8846585750579834, 0.07323585450649261, 0.025936372578144073, -0.7487829923629761, 0.2423447221517563, 0.43345963954925537, 0.4334929883480072, -0.5274478793144226, -0.3977679908275604, -0.002031773328781128, -1.2943758964538574, -0.8133909106254578, 0.16253025829792023, 0.13934005796909332, -0.4670984745025635, -0.729192316532135, -0.27670419216156006, 0.2458580881357193, 0.31654417514801025, -0.13906584680080414, 0.09000437706708908, -0.12216051667928696, -0.10391753911972046, -0.5019416809082031, 0.1428229957818985, -0.17207612097263336], [1.304293155670166, -0.19690655171871185, -0.9188836812973022, 0.1203070804476738, 0.3960842788219452, 0.03538776561617851, -0.20421068370342255, 0.10376192629337311, 0.1994251310825348, 0.43518707156181335, 0.4115346670150757, 3.0190608501434326, -0.25073182582855225, -1.1769555807113647, 0.16098253428936005, -0.04356423020362854, -0.483461856842041, 0.4825665354728699, 2.2785630226135254, -0.1608782857656479, -0.14357337355613708, 0.0969892293214798, -0.5203077793121338, -0.9921433925628662, 0.2244529277086258, 0.053084246814250946, -0.032991472631692886, -0.04957208037376404, 0.14191389083862305, -0.0272129625082016, -0.1648271381855011, -0.17425960302352905], [0.9143145084381104, 0.12370935827493668, 1.0896251201629639, 0.023993365466594696, 1.3380577564239502, -0.12547992169857025, 0.891009509563446, 0.01306067407131195, -0.7423427104949951, 0.2064630687236786, -0.5641590356826782, 3.8283610343933105, 0.37727171182632446, -1.7846381664276123, -0.11548156291246414, 0.1736273616552353, -0.1992187649011612, -0.05518489331007004, 3.4127438068389893, -0.1384904682636261, -0.7228281497955322, -0.8082654476165771, 0.10967127233743668, -0.5237887501716614, -0.014698625542223454, -0.5641920566558838, -0.7723397016525269, -1.2004011869430542, -0.7817627787590027, -0.3029940128326416, -0.12664687633514404, -0.0797615796327591], [-0.4641623795032501, 0.08941144496202469, 0.7982902526855469, 1.2995952367782593, -0.07398714125156403, -0.3697931170463562, 0.39359408617019653, 0.06742873787879944, -0.08640991896390915, -0.3503871560096741, -0.29071173071861267, 0.6669437885284424, -0.19178754091262817, 2.239515542984009, 0.12924113869667053, -0.12857112288475037, 1.9130470752716064, -0.06658405810594559, 0.9006263613700867, 0.1757647842168808, 0.06991548836231232, 0.24528680741786957, 0.5455623865127563, 1.4633513689041138, -0.38622379302978516, -0.3153391480445862, -0.2816876173019409, -0.2929293215274811, -0.0062713916413486, 0.037265487015247345, 0.11381112039089203, 0.12024517357349396], [-0.21796759963035583, -0.12904560565948486, 0.5403409600257874, 0.5915346145629883, -0.019462818279862404, -0.012573723681271076, -0.1894845962524414, 0.14791636168956757, 0.09337463974952698, -0.19019050896167755, 0.2177814394235611, 1.2742908000946045, 0.00912208016961813, 0.15801943838596344, -0.20881704986095428, -0.14762510359287262, 0.3617886006832123, -0.12676401436328888, 1.7482850551605225, -0.14154742658138275, 0.0618445985019207, 0.07542908936738968, 0.3506748676300049, 0.5779083967208862, 0.14658719301223755, -0.811607301235199, -0.006355247925966978, -0.0505807027220726, -0.08133877068758011, -0.0768873319029808, 0.17145220935344696, -0.03357739746570587], [-0.22896909713745117, -0.33605825901031494, 0.38196301460266113, 0.1399596929550171, -0.28565388917922974, 0.0762549489736557, -0.5534262657165527, 0.041854456067085266, 0.13288523256778717, 0.06638672202825546, 0.015063481405377388, -0.40485963225364685, 0.27425700426101685, 0.5386069416999817, -0.20777174830436707, -0.06565260887145996, 1.1760046482086182, -0.042501289397478104, 0.3847293555736542, -0.1517476588487625, 0.3871106505393982, 0.2853473126888275, 0.3405636250972748, 0.05194373056292534, 0.297091007232666, -1.5339950323104858, 0.18545252084732056, 0.17648622393608093, 0.08087636530399323, -0.10874029994010925, 0.010815933346748352, 0.15439392626285553], [-0.4663430154323578, 0.18553072214126587, 0.22824355959892273, -0.5228238701820374, -0.7227187156677246, 0.29996222257614136, -0.25716543197631836, 0.16947267949581146, 0.12873150408267975, 0.7057280540466309, -0.1852484941482544, -1.217746615409851, -0.6427574157714844, 0.8616787791252136, 0.021253637969493866, 0.037343576550483704, -0.6043362617492676, 0.757768988609314, -1.8428832292556763, 0.09382010996341705, 0.7871940732002258, 0.9158600568771362, 0.4846968948841095, 0.039808489382267, -0.2646523714065552, 0.026011601090431213, -0.054254140704870224, 0.588932991027832, 0.29021546244621277, -0.0747615247964859, 0.0018736422061920166, 0.030586540699005127]], "muscle_k_to_vertex_q.2.bias": [0.07073473185300827, 0.291144460439682, 0.07828300446271896, 0.33916783332824707, 0.05791579931974411, -0.050095461308956146, -0.10294607281684875, -0.20567964017391205, 0.2575291693210602, 0.21268340945243835, -0.024444928392767906, -0.1238153949379921, -0.008564325980842113, -0.12647026777267456, -0.09356692433357239, 0.0667242780327797, 0.17747539281845093, 0.014942738227546215, 0.1309419423341751, -0.6290004849433899, 0.3056737184524536, -0.010214791633188725, 0.30715644359588623, 0.538689911365509, -0.11157451570034027, 0.026837533339858055, -0.032108161598443985, 0.5191799998283386, 0.017964143306016922, 0.02341318130493164, 0.10000089555978775, 0.06881923228502274, -0.0039117648266255856, 0.14427123963832855, 0.2462639957666397, -0.31737780570983887, -0.1541300117969513, 0.21922847628593445, 0.3132847845554352, 0.10012883692979813], "wv_to_output.0.weight": [[0.4077410101890564, -0.14469225704669952, -0.036216773092746735, 0.052984125912189484, 0.16675491631031036, -0.16077053546905518, 0.05557935684919357, 0.04290477931499481, 0.04754035547375679, 0.03907020390033722, 0.10813193768262863, 0.01964777149260044, -0.0018240812933072448, -0.08214709907770157, -0.06122470274567604, -0.02409394457936287, 0.42051976919174194, 0.04201040416955948, -0.0058457315899431705, -0.12628009915351868, -0.06366176903247833, -0.1140347495675087, -0.026043400168418884, 0.18054643273353577, 0.03551914542913437, -0.004378368612378836, -0.057800162583589554, -0.061159878969192505, 0.08142267912626266, 0.23514704406261444, -0.1383764147758484, -0.1435122787952423, 0.08140109479427338, 0.11479873955249786, 0.11868085712194443, 0.08214797079563141, -0.19814547896385193, -0.04164905846118927, 0.012720970436930656, -0.17638832330703735, -0.33397629857063293, -0.24996618926525116, 0.07547280192375183, 0.24404898285865784, -0.12374874949455261, -0.4524622857570648, -0.035275280475616455, -0.284242182970047, 0.15107661485671997, -0.3250212073326111, 0.031152861192822456, 0.13862401247024536, 0.4608413577079773, -0.20943193137645721, 0.029861843213438988, 0.021050814539194107, 0.17335309088230133, 0.39083001017570496, -0.15667249262332916, -0.1620205044746399, -0.20343053340911865, -0.36348122358322144, -0.012632130645215511, -0.035115309059619904, -0.16181674599647522, 0.1881571263074875, -0.05068083852529526, -0.1478656381368637, 0.5014798641204834, -0.004476060159504414, 0.05668710544705391, 0.022667938843369484, 0.24240203201770782, 0.04890032112598419, 0.1421348750591278, 0.22713203728199005, 0.06731514632701874, 0.10231603682041168, -0.08027857542037964, -0.017294835299253464], [-0.008879708126187325, 0.12190177291631699, -0.04513797536492348, -0.10977168381214142, 0.9309754371643066, 0.043216727674007416, 0.19241982698440552, -0.25313588976860046, 0.37467432022094727, 0.21049591898918152, 0.09996213018894196, 0.007074572145938873, -1.1945747137069702, -0.0967404693365097, -0.1503465622663498, 0.059643544256687164, -0.4983797073364258, -0.4255305826663971, 0.057221896946430206, 0.1199730932712555, 1.6606359481811523, 0.25218406319618225, 0.07515250146389008, 0.11541933566331863, -0.17342069745063782, 0.22583407163619995, 0.037890370935201645, -0.2770877182483673, -0.4935947060585022, -0.07542041689157486, -0.13933447003364563, 0.14140236377716064, -0.38615745306015015, -0.13746610283851624, -0.3628838062286377, -0.05639468878507614, -1.4668917655944824, -0.2933788001537323, -0.13213883340358734, -0.09500999003648758, -0.1717691272497177, 0.26736217737197876, -0.12057915329933167, -0.09363117814064026, 0.2854660749435425, -0.49002406001091003, 0.11256769299507141, 0.002866484224796295, 0.0888918861746788, 0.4513774812221527, 0.13980954885482788, -0.1076575294137001, 0.16093149781227112, -0.33040881156921387, -0.07848134636878967, 0.10366089642047882, -0.8843622803688049, -0.7023903727531433, 0.04506807401776314, 0.2981601655483246, 0.3553033471107483, 0.10753639042377472, 0.18631237745285034, 0.031992774456739426, -0.2594278156757355, 0.2653927206993103, 0.32013949751853943, 0.22328908741474152, 0.5821977853775024, 0.43700218200683594, -0.014178638346493244, -0.010024439543485641, -0.24641644954681396, 0.1840197741985321, -0.0837501510977745, -0.05180305242538452, 0.008075455203652382, -0.32985469698905945, -0.13632847368717194, -0.18094083666801453], [0.6698360443115234, -0.1576438546180725, 0.0010889751138165593, 0.1970987170934677, 0.8197318911552429, 0.12993820011615753, 0.048723991960287094, 0.2762261629104614, 0.06021253392100334, 0.7514697909355164, -0.014203364960849285, 0.11024133861064911, -0.17578059434890747, -0.3435494899749756, 0.1742362380027771, -0.048364993184804916, 0.12002801895141602, 0.3340595066547394, 0.13031421601772308, -0.22228874266147614, 0.25937917828559875, 0.41211551427841187, 0.1208156943321228, 0.057611264288425446, -0.11113522201776505, 0.09522263705730438, 0.06682801246643066, 0.1379334181547165, -0.03274292126297951, -0.29810214042663574, 0.1449083685874939, -0.22650165855884552, -1.2865055799484253, -0.13210241496562958, 0.06491358578205109, 0.10333316028118134, -0.13258814811706543, 0.08592931181192398, -0.0586804561316967, 0.11471633613109589, -0.028836853802204132, -0.2701810896396637, -0.012390677817165852, 0.07295086234807968, 0.0813521295785904, -0.21067850291728973, -0.029714705422520638, 0.15450087189674377, -0.24953827261924744, -0.18388709425926208, 0.059525903314352036, 0.023901568725705147, 0.3509244918823242, 0.23684844374656677, -0.055867768824100494, 0.031549956649541855, -0.19372358918190002, 0.19093041121959686, 0.08447980135679245, -0.1479010283946991, -0.035356540232896805, 0.2130383551120758, 0.10742758214473724, 0.00675639882683754, 0.000367640343029052, -0.12008821219205856, -0.23658296465873718, -0.27658385038375854, -0.28026512265205383, -0.1082947626709938, -0.15833713114261627, 0.17381739616394043, -0.5864379405975342, -0.4028128981590271, -0.2635898292064667, -0.17200309038162231, -0.579622209072113, 0.07962320744991302, 0.017181647941470146, 0.007839503698050976], [-0.5166453719139099, -0.1970069408416748, 0.06442581862211227, 0.044299714267253876, -0.23084060847759247, -0.09695390611886978, 0.028774384409189224, 0.10952653735876083, 0.25264716148376465, 0.06802815943956375, -0.07804214954376221, 0.13084712624549866, 0.11092197149991989, -0.027508370578289032, 0.08833793550729752, 0.13282285630702972, 0.2844442129135132, -0.290732204914093, 0.09120268374681473, -0.05712457746267319, 0.06710471957921982, -0.4169975817203522, -0.07377056777477264, -0.02342379279434681, -0.5474628806114197, -0.2200564444065094, -0.05820905417203903, 0.09049154072999954, -0.43102601170539856, -0.3514432907104492, 0.011755654588341713, 0.11951469630002975, 0.44692328572273254, -0.17493836581707, 0.17341873049736023, 0.07744188606739044, 0.4440397024154663, -0.35801270604133606, 0.15381604433059692, 0.18838739395141602, 0.41401252150535583, -0.1259428709745407, -0.13078929483890533, 0.12303371727466583, 0.43437567353248596, 0.09468446671962738, 0.18329551815986633, 0.06915808469057083, -0.07897552847862244, -0.18631011247634888, 0.11554166674613953, 0.023171812295913696, 0.2941974997520447, 0.5359001159667969, 0.1221494972705841, 0.06438633799552917, -0.3194985091686249, -0.0906582921743393, 0.11869015544652939, 0.06711255013942719, 0.6050136089324951, -0.08550817519426346, 0.240167036652565, -0.010575461201369762, -0.08238088339567184, -0.2665204405784607, -0.006504337303340435, -0.09609995782375336, 0.44660061597824097, -0.17739658057689667, 0.2064642310142517, 0.060687948018312454, 0.42204180359840393, -0.09986557066440582, 0.15184971690177917, 0.16526947915554047, 0.5514481067657471, 0.1846769005060196, 0.13706111907958984, 0.15554270148277283], [-0.09046944975852966, -0.2481241524219513, 0.2645915448665619, 0.15291722118854523, 0.36582303047180176, 0.2168276458978653, -0.04347200691699982, -0.03369562700390816, -0.029525594785809517, 0.4214479327201843, -0.02723638340830803, -0.27826255559921265, -0.2972717881202698, -0.4620125889778137, -0.13233408331871033, 0.011845363304018974, 0.17161248624324799, 0.10250359773635864, -0.05859095975756645, -0.05122200399637222, -0.019243400543928146, -0.01780950464308262, 0.044974904507398605, -0.06996365636587143, -0.29542508721351624, -0.24432329833507538, -0.06708208471536636, -0.0038615751545876265, -0.06969920545816422, -0.34803062677383423, 0.10975610464811325, 0.06275943666696548, -0.1945783495903015, -0.030681192874908447, -0.45796701312065125, -0.020214825868606567, 0.03928298130631447, -0.1240784153342247, -0.25121018290519714, -0.07369687408208847, -0.8249466419219971, -0.6221745014190674, 0.08742738515138626, 0.05353903770446777, 0.05574971064925194, 0.5237343311309814, -0.10207777470350266, -0.06410323083400726, -0.5528296232223511, -0.5554246306419373, 0.10300672799348831, -0.04621262848377228, -0.2685708999633789, -0.31279683113098145, -0.09076544642448425, 0.03802410140633583, -0.08361074328422546, -0.5176222324371338, -0.03938131406903267, -0.08589157462120056, -0.0919879749417305, 0.08905293792486191, 0.19130483269691467, 0.018016722053289413, -0.07553603500127792, 0.09163867682218552, -0.27441656589508057, 0.048146601766347885, 0.12813523411750793, 0.10234405845403671, -0.025376783683896065, 0.1913629174232483, -0.678166389465332, 0.07581864297389984, 0.017917020246386528, 0.17934495210647583, -0.40155652165412903, 0.08099392801523209, 0.027622627094388008, 0.08679239451885223], [0.6023772358894348, 0.04728865623474121, 0.052883606404066086, -0.006086026784032583, -0.35757485032081604, -0.20894721150398254, 0.005229342263191938, -0.05804728716611862, 0.10397551953792572, 0.3910561800003052, 0.022125860676169395, 0.11666823923587799, -0.0520220547914505, 0.14730621874332428, -0.1832888126373291, -0.09543408453464508, 0.2764323055744171, 0.10602261871099472, 0.052249934524297714, -0.1615089774131775, -0.559072732925415, 0.23394297063350677, -0.093915656208992, 0.22674815356731415, 0.24360866844654083, -0.05175051465630531, 0.09245304018259048, 0.09858664870262146, -0.18710552155971527, -0.3038560152053833, 0.1141035407781601, -0.0649561807513237, -0.29205456376075745, -0.013236286118626595, -0.00732751889154315, -0.22289499640464783, -0.3116528391838074, -0.2276538759469986, -0.10293688625097275, 0.2197813093662262, 0.1614183783531189, -0.046310506761074066, 0.18252766132354736, 0.3020312786102295, 0.028372574597597122, 0.10641992092132568, 0.01627768762409687, 0.04478232562541962, -0.414669007062912, -0.16079263389110565, -0.024478092789649963, -0.0009816172532737255, 0.38851070404052734, 0.11757354438304901, 0.12015417963266373, -0.09120983630418777, -0.6380804777145386, -0.21280550956726074, 0.03911847248673439, -0.09593705087900162, -0.09608478099107742, -0.2091899812221527, -0.04171278327703476, -0.16209816932678223, -0.10476148128509521, -0.0410911850631237, -0.21625538170337677, -0.018906261771917343, 0.33365398645401, -0.16798493266105652, -0.1193636953830719, 0.14242762327194214, -0.1855025589466095, -0.05251963809132576, -0.07899224013090134, 0.13783399760723114, -0.23291704058647156, -0.03559347614645958, -0.0947861447930336, -0.10589078813791275], [0.07643716782331467, 0.4064792990684509, -0.05675894767045975, 0.06340701878070831, 0.40976226329803467, 0.5402070879936218, -0.01066504418849945, -0.17904633283615112, -0.24467791616916656, 0.2170243263244629, -0.33419865369796753, -0.0009263867395929992, 0.25776857137680054, -0.058081332594156265, 0.1818191260099411, -0.019679447636008263, -0.03170166537165642, -0.12127020210027695, 0.026304924860596657, 0.17360453307628632, -0.011196902021765709, -0.12064796686172485, 0.06179928407073021, -0.10752325505018234, 0.10664752870798111, -0.2405451536178589, -0.18578916788101196, 0.4264889061450958, 0.3931906521320343, 0.3923279941082001, -0.08528262376785278, 0.08245381712913513, 0.27762240171432495, 0.19126197695732117, 0.04035137593746185, -0.054664794355630875, -0.07387260347604752, -0.09433898329734802, 0.1302177906036377, -0.0016702426364645362, 0.3652898967266083, 0.9525211453437805, -0.01518300361931324, -0.4199380576610565, 0.0644867792725563, 0.26007363200187683, 0.05327141657471657, 0.0008648368529975414, 0.6767522692680359, 1.1631580591201782, -0.17319521307945251, 0.1319061517715454, 0.7219530940055847, 0.6454876065254211, -0.10892484337091446, -0.2509201169013977, 0.5778083801269531, 0.23535603284835815, 0.060506533831357956, -0.16601252555847168, 0.4343598484992981, 0.48613986372947693, 0.21242164075374603, 0.28791922330856323, 1.1402462720870972, 0.43125733733177185, -0.10228404402732849, 0.04040205106139183, -0.40002715587615967, -0.5059478282928467, -0.19053490459918976, 0.025732893496751785, -0.038963235914707184, 0.2665652930736542, -0.1768220067024231, 0.18109872937202454, 0.4454997479915619, -0.06881877034902573, 0.011926920153200626, 0.07571854442358017], [-0.36008739471435547, 0.2737043499946594, -0.2201623171567917, 0.08718647062778473, -0.7259355187416077, -0.3551461398601532, -0.03504924476146698, 0.02362011931836605, 0.21464504301548004, -0.11242740601301193, 0.31995993852615356, -0.046416111290454865, 0.43951237201690674, 0.5844693183898926, 0.005232954863458872, 0.0297678392380476, 0.027782447636127472, -0.3372950255870819, -0.1334974318742752, 0.20377853512763977, -0.00963575392961502, -0.17391856014728546, 0.08625191450119019, 0.06991405785083771, 0.5428298711776733, 0.40458938479423523, -0.10672996193170547, -0.21581009030342102, 0.5679656267166138, 1.043066143989563, -0.18792283535003662, 0.2733570337295532, 0.322581946849823, 0.6759455800056458, -0.07175073772668839, -0.046073634177446365, 0.09474968910217285, 0.1666167825460434, 0.197459414601326, 0.03354785218834877, 0.08881913125514984, 0.5751314759254456, -0.09501893073320389, -0.11822979152202606, -0.27766185998916626, -0.2724153995513916, -0.008167849853634834, -0.3417162299156189, 0.6405555605888367, -0.03495943918824196, 0.16045936942100525, -0.12444595247507095, -0.2949760854244232, -0.3817284405231476, 0.15392932295799255, 0.20240351557731628, 0.4870249330997467, 0.10170473903417587, 0.07865665853023529, 0.0793757364153862, -0.3694338798522949, -0.2603548765182495, -0.18093490600585938, -0.22904907166957855, -0.13236331939697266, -0.005505260545760393, 0.11841530352830887, 0.21264556050300598, 0.2959754168987274, 0.140227809548378, 0.17079520225524902, -0.1937340945005417, 0.6220186948776245, 0.40776997804641724, 0.1862402707338333, -0.0034851585514843464, 0.21272453665733337, 0.2544328272342682, 0.16196273267269135, -0.16512665152549744], [-0.07691949605941772, -0.2140742689371109, 0.10561155527830124, 0.046099305152893066, 0.2925902009010315, 0.4528389275074005, 0.013559674844145775, 0.016410034149885178, 0.20392687618732452, 0.9956381320953369, -0.07235139608383179, -0.1542104035615921, -0.16654323041439056, -0.35617491602897644, -0.08653414249420166, -0.08587376028299332, 0.351832777261734, 0.6400389671325684, 0.22574153542518616, -0.3810161352157593, 0.6138551831245422, 0.6892508864402771, -0.04516845569014549, -0.1931513398885727, -0.39308810234069824, 0.030708005651831627, 0.08368344604969025, 0.17517788708209991, 0.2217031568288803, 0.24098871648311615, -0.11079773306846619, 0.1079186275601387, -0.5575552582740784, -0.10344155877828598, -0.002990890061482787, -0.08349031209945679, 0.4174942076206207, 0.4786357581615448, -0.0746699795126915, -0.030108334496617317, -0.7197726964950562, -0.17877361178398132, 0.14814472198486328, 0.026734134182333946, -0.3542362153530121, -0.07532017678022385, -0.18167085945606232, 0.015707051381468773, 0.7104373574256897, -0.5249203443527222, 0.12178411334753036, 0.10995893180370331, 0.1335001289844513, 0.5728510618209839, 0.08125507086515427, -0.06808768957853317, 0.624411940574646, 1.3416821956634521, -0.02942800708115101, -0.160711869597435, -0.18636713922023773, -0.30414527654647827, 0.04495403170585632, 0.2418491393327713, 0.014236992225050926, 0.09944338351488113, -0.02022775448858738, -0.03422503545880318, -0.6407047510147095, -0.20362192392349243, 0.06638742238283157, 0.026054413989186287, -0.17543518543243408, -0.7695098519325256, -0.2536909580230713, 0.40837764739990234, -0.34760206937789917, 0.3324618339538574, 0.07594697177410126, 0.15208642184734344], [0.5697827935218811, -0.23032249510288239, 0.15715138614177704, 0.20604738593101501, 0.12759551405906677, 0.16708551347255707, -0.19796666502952576, -0.2716505825519562, 0.26004889607429504, 0.018579062074422836, 0.12373922020196915, -0.09318265318870544, -0.12510108947753906, -0.20669043064117432, 0.13670852780342102, 0.13996323943138123, 0.10549052059650421, 0.06485335528850555, -0.004383178427815437, 0.10630656778812408, 0.2034720927476883, 0.05838634446263313, 0.12625667452812195, -0.021108122542500496, 0.32579323649406433, 0.10182379186153412, -0.10272294282913208, -0.011775761842727661, -0.09973780810832977, -0.2815617024898529, -0.025875339284539223, 0.2037566751241684, -0.054292917251586914, 0.2713807225227356, -0.1398250311613083, -0.05563078820705414, -0.2676960527896881, -0.07655523717403412, -0.020365584641695023, 0.07343363016843796, 0.08679919689893723, -0.05920100212097168, 0.2699333727359772, 0.3497387766838074, 0.18176400661468506, 0.6534637808799744, -0.018022481352090836, -0.24220193922519684, -0.8496668934822083, -0.10070940852165222, -0.0024074679240584373, 0.007939709350466728, 0.22699305415153503, 0.26844772696495056, -0.08238310366868973, 0.1397513896226883, 0.10108042508363724, -0.02766631357371807, 0.07227958738803864, 0.11551924794912338, -0.002396928146481514, -0.07243669778108597, -0.24688871204853058, -0.43063434958457947, 0.027338426560163498, -0.09929285943508148, -0.17129157483577728, 0.03805091977119446, 0.13699360191822052, 0.13312233984470367, -0.007672040723264217, -0.1868344247341156, -0.5180062055587769, -0.09147750586271286, 0.1890406608581543, 0.28010502457618713, -0.3159782886505127, 0.12526026368141174, 0.015254744328558445, 0.09752834588289261], [0.539699137210846, 0.18985199928283691, -0.07835439592599869, -0.15041881799697876, 0.05996435508131981, -0.21238501369953156, 0.13486234843730927, -0.03014511428773403, 0.09461680054664612, -0.40918290615081787, 0.1921173632144928, -0.04533310979604721, 0.24557770788669586, -0.17067822813987732, 0.07373112440109253, -0.07999895513057709, 0.2139093577861786, -0.09920485317707062, -0.13603904843330383, 0.0842105895280838, -0.1321745216846466, -0.09393759071826935, 0.19636836647987366, 0.12351981550455093, 0.3535427153110504, -0.1821984201669693, 0.030702006071805954, -0.10084067285060883, 0.10819366574287415, 0.029332006350159645, -0.025456761941313744, -0.03247285634279251, -0.0014080532127991319, -0.1011986956000328, 0.08767179399728775, 0.018227094784379005, -0.13727682828903198, -0.12239544093608856, 0.014874743297696114, -0.06927930563688278, 0.23710356652736664, 0.15074388682842255, -0.12258869409561157, 0.03895632550120354, 0.04309936612844467, -0.34663742780685425, 0.058996718376874924, -0.009418145753443241, 0.09946152567863464, -0.3434060513973236, 0.10883678495883942, 0.05718173086643219, 0.10835808515548706, -0.2305750548839569, 0.1429319828748703, 0.1020108312368393, 0.17603211104869843, 0.10056895017623901, 0.08259675651788712, 0.0004920639330521226, -0.1592177450656891, -0.39532166719436646, -0.07710584253072739, 0.02629142813384533, -0.11682010442018509, -0.1493874490261078, 0.07748854160308838, 0.22708304226398468, 0.34424400329589844, -0.14293833076953888, -0.0539516918361187, 0.0646396353840828, -0.1333361268043518, -0.25688865780830383, 0.08674662560224533, 0.030276959761977196, 0.020905740559101105, 0.15019063651561737, 0.07702178508043289, -0.05457250773906708], [-0.593801736831665, -0.16488301753997803, 0.03610033541917801, -0.20101474225521088, -0.10116935521364212, -0.06237674877047539, -0.01484486274421215, 0.03875398263335228, -0.3349967300891876, -0.29894694685935974, -0.21396631002426147, 0.053222525864839554, 0.24724647402763367, 0.46987831592559814, -0.14377212524414062, -0.033022765070199966, -0.21087518334388733, -0.012728781439363956, 0.14849357306957245, -0.42842236161231995, -0.21162131428718567, -0.05468735098838806, -0.16792523860931396, -0.10903234779834747, 0.23261648416519165, 0.2175273597240448, 0.1718180924654007, -0.23165017366409302, 0.07994221150875092, 0.40435096621513367, 0.14068898558616638, 0.42687755823135376, 0.15883465111255646, 0.2489158660173416, 0.17849700152873993, -0.09337996691465378, -0.2335795760154724, -0.3139871656894684, 0.2250702679157257, 0.13801002502441406, -0.19976741075515747, -0.23338884115219116, -0.11531351506710052, -0.008537869900465012, 0.16151781380176544, 0.3605102598667145, -0.20894014835357666, 0.11546124517917633, -0.04615829512476921, 0.10006322711706161, 0.273453027009964, -0.14343778789043427, 0.42363879084587097, 0.3471677303314209, -0.07922369241714478, -0.09166741371154785, 0.1289498507976532, -0.01579565927386284, -0.21715997159481049, 0.11580142378807068, 0.2392798215150833, 0.07799529284238815, 0.26605862379074097, 0.2585088014602661, 0.6607113480567932, 0.6901137828826904, -0.041731398552656174, -0.27850112318992615, -0.1919477880001068, -0.14089052379131317, 0.0746438279747963, 0.027393974363803864, 0.17644478380680084, 0.3776179850101471, 0.06970839202404022, -0.32488688826560974, 0.5165577530860901, -0.17329004406929016, -0.16233161091804504, 0.14998699724674225], [-0.19432860612869263, -0.2939116954803467, 0.4436723589897156, 0.11613255739212036, -0.43657758831977844, -0.2532084584236145, -0.1351717859506607, -0.16480126976966858, 0.12851040065288544, 0.06983127444982529, 0.057780273258686066, -0.23847679793834686, -0.5837153792381287, -0.006319059059023857, 0.1776895821094513, 0.00891291256994009, 0.4200420081615448, 0.1477534919977188, -0.13604266941547394, -0.2653433084487915, 0.25308582186698914, -0.10692301392555237, -0.058765824884176254, 0.09791287034749985, 0.018468717113137245, -0.07269131392240524, -0.1667802631855011, 0.2111806869506836, -0.4196113348007202, -0.14324985444545746, -0.06440892815589905, 0.1350967139005661, -0.1757470667362213, 0.06137678399682045, -0.07887725532054901, 0.177880197763443, 0.15615259110927582, -0.0737382248044014, 0.03698808699846268, -0.11222776770591736, -0.08307677507400513, -0.2527393102645874, 0.0259876549243927, 0.17951565980911255, -0.3481864929199219, -0.5808093547821045, -0.10613236576318741, -0.2633017599582672, -0.6243440508842468, -0.44976961612701416, -0.062223225831985474, -0.016698628664016724, -0.6747778058052063, -0.5753254294395447, 0.012139911763370037, -0.009733728133141994, -0.6498817205429077, 0.0330415815114975, 0.12721654772758484, 0.0036736540496349335, -0.2492137849330902, -0.23090898990631104, -0.13966727256774902, -0.2110469490289688, -0.04876677691936493, -0.02923688292503357, -0.07832739502191544, 0.028712932020425797, 0.4044092297554016, 0.1673584133386612, -0.07207141071557999, 0.17629989981651306, -0.35120654106140137, -0.2808171510696411, 0.09601719677448273, 0.1820141226053238, -0.36957913637161255, -0.6209468841552734, -0.016369516029953957, 0.006176384165883064], [0.07978314906358719, -0.18050631880760193, 0.10480614006519318, 0.17943327128887177, -0.6080166697502136, -0.7020781636238098, 0.10802340507507324, -0.1500561684370041, 0.27170926332473755, 0.521216094493866, -0.047962166368961334, 0.22495873272418976, -0.2992642819881439, 0.6764664649963379, 0.14639772474765778, -0.25483089685440063, -0.032357219606637955, 0.006015786901116371, 0.01723414473235607, 0.0010703320149332285, 1.0984441041946411, 1.527513861656189, -0.2916983366012573, -0.04637887701392174, -0.2656809687614441, 0.27423736453056335, 0.18026202917099, -0.32671570777893066, -0.10164130479097366, -0.01575619727373123, 0.2306572049856186, -0.06513698399066925, -0.1593608558177948, -0.18974386155605316, -0.06367213279008865, 0.06079106032848358, 0.8144986033439636, 0.818829357624054, 0.06108938902616501, 0.3784649074077606, -0.029083361849188805, 0.21975281834602356, -0.23920220136642456, -0.1474495679140091, 0.11719726026058197, -0.11012701690196991, 0.04239720106124878, 0.08620359748601913, 0.42542245984077454, 0.3804711401462555, 0.033371973782777786, -0.5174638628959656, -0.1466434895992279, 0.27523595094680786, -0.14344890415668488, 0.28495246171951294, 0.31283068656921387, 0.8896029591560364, -0.20223137736320496, 0.2271108627319336, -0.123089499771595, -0.2032855749130249, 0.19101384282112122, -0.09606543928384781, 0.37802281975746155, 0.14346431195735931, -0.20966148376464844, 0.2852388620376587, -0.48223403096199036, -0.09459640830755234, 0.21786080300807953, -0.0013370071537792683, -0.10735859721899033, 0.01649634726345539, -0.10920470952987671, -0.6249575018882751, -0.0005456939106807113, 0.12082571536302567, -0.10395567864179611, 0.05856489762663841], [0.3958883583545685, 0.03535756096243858, 0.004075293894857168, 0.041176002472639084, 0.4557686746120453, -0.23497161269187927, 0.0013231178745627403, 0.024733522906899452, 0.13288408517837524, -0.09646685421466827, 0.07052050530910492, 0.15593299269676208, -0.2243649810552597, -0.09603814035654068, 0.08238767832517624, 0.06773469597101212, -0.2866052985191345, 0.02285091020166874, -0.08362170308828354, 0.0009329128661192954, 1.0728250741958618, 0.42234307527542114, 0.0658295601606369, 0.1879689246416092, -0.026756877079606056, 0.05355260893702507, 0.02676844410598278, -0.07342894375324249, -0.1344316601753235, -0.17722733318805695, -0.023215843364596367, -0.12339314073324203, -0.7171869277954102, -0.18903177976608276, -0.14418290555477142, 0.010745727457106113, 0.007905096746981144, -0.14348123967647552, 0.06664270907640457, 0.3290919363498688, -0.0017265514470636845, -0.07730085402727127, 0.15915997326374054, 0.17763374745845795, 0.21768586337566376, -0.1132366806268692, -0.08298054337501526, 0.17466823756694794, -0.07429291307926178, 0.41817089915275574, 0.14269587397575378, -0.03420727699995041, 0.25393542647361755, 0.022973380982875824, 0.07212716341018677, 0.1195468008518219, -0.2103753238916397, 0.20928658545017242, -0.007522378582507372, 0.17307431995868683, 0.16264867782592773, 0.2786327600479126, -0.03277968615293503, 0.1343979388475418, -0.007978150621056557, -0.0807972326874733, -0.11623026430606842, -0.004656544886529446, 0.04125131666660309, 0.2670423090457916, 0.06813658028841019, -0.1240042895078659, -0.3160630166530609, -0.17711801826953888, -0.30374011397361755, -0.3112892210483551, -0.20747539401054382, 0.1803576946258545, -0.004395410418510437, -0.15517657995224], [-0.033135443925857544, -0.1255616992712021, 0.14940914511680603, 0.17232628166675568, 0.07135865837335587, 0.07061709463596344, 0.021263791248202324, 0.13458599150180817, -0.1400374472141266, -0.1564304083585739, 0.05135780945420265, -0.05809535086154938, -0.006941394414752722, -0.11219795048236847, 0.023008910939097404, 0.03968517482280731, 0.1440885215997696, 0.009399905800819397, -0.17749862372875214, 0.009886336512863636, -0.5031425356864929, -0.1670825332403183, 0.04267628490924835, 0.006292690522968769, 0.09520497173070908, -0.1606954038143158, -0.13593485951423645, 0.08803750574588776, 0.08649860322475433, -0.02680862881243229, 0.13650113344192505, 0.15106390416622162, 0.4145277738571167, 0.10788694024085999, 0.11962340027093887, 0.3532239496707916, 0.10113667696714401, -0.1850908249616623, -0.0034266312140971422, 0.012575247325003147, 0.1646098643541336, -0.002106431871652603, 0.22684749960899353, 0.06909757107496262, -0.28488689661026, 0.5740630030632019, 0.2153189480304718, -0.10996467620134354, -0.6001988053321838, -0.46603190898895264, 0.021857718005776405, 0.14489711821079254, -0.369231641292572, -0.2863210439682007, 0.02547491155564785, 0.1522168517112732, -0.07578404247760773, -0.6166821718215942, -0.055635709315538406, 0.06103628873825073, 0.32192718982696533, 0.1216350570321083, 0.015371196903288364, 0.180015429854393, 0.2599385678768158, 0.029857486486434937, 0.0522436648607254, -0.1033317968249321, -0.1518295556306839, 0.04597003012895584, -0.398131400346756, -0.013144193217158318, -0.045561376959085464, 0.2887210249900818, 0.1627727746963501, 0.04815218970179558, -0.03417029231786728, -0.5112348198890686, 0.1243765726685524, 0.3649093508720398], [0.6603509187698364, -0.1876581907272339, 0.04566667973995209, 0.12931258976459503, 0.5552170276641846, 0.09518485516309738, -0.06965570896863937, 0.11310023069381714, -0.09857690334320068, 0.44711750745773315, 0.26121851801872253, 0.07434796541929245, -0.04440616816282272, 0.29246121644973755, -0.0857895165681839, -0.021899593994021416, 0.24700146913528442, 0.3872729241847992, 0.1879187673330307, -0.16029110550880432, 0.40322908759117126, 0.2220013588666916, 0.33844423294067383, 0.03935399651527405, -0.17767414450645447, 0.17846019566059113, -0.1374439001083374, 0.19392764568328857, 0.2240608036518097, 0.05602274462580681, -0.11372740566730499, -0.3156048059463501, -0.40097811818122864, 0.0559353306889534, 0.08558512479066849, 0.03307858482003212, 0.3513702154159546, 0.4867737591266632, 0.23996593058109283, 0.07727915048599243, -0.3598315417766571, -0.24586036801338196, -0.006393826100975275, -0.03136581927537918, 0.20657290518283844, -0.3659268319606781, -0.14078906178474426, -0.08716779202222824, 0.12684184312820435, -0.519716203212738, 0.10303251445293427, -0.06674912571907043, 0.5908350348472595, 0.20179805159568787, 0.037333399057388306, 0.22074788808822632, 0.2557718753814697, 1.1350725889205933, -0.39468103647232056, -0.19511784613132477, -0.25059664249420166, -0.06952948123216629, -0.03287888690829277, 0.3446025848388672, -0.2683935761451721, -0.14267291128635406, -0.061036787927150726, -0.13207468390464783, -0.2979067265987396, -0.4564872086048126, -0.2385512739419937, 0.1497306376695633, -0.017332082614302635, -0.29895517230033875, -0.14567868411540985, -0.006792696192860603, 0.03382769599556923, 0.5948653817176819, -0.030147068202495575, -0.03565747290849686], [0.09434890002012253, -0.2091648429632187, 0.048630766570568085, 0.03597559407353401, -0.009196698665618896, -0.041527923196554184, 0.14858289062976837, 0.17393630743026733, 0.006976285483688116, 0.04312671348452568, -0.0042608617804944515, 0.14765530824661255, -0.16230261325836182, -0.27383238077163696, 0.17775173485279083, -0.024110551923513412, 0.18324367702007294, -0.10595903545618057, 0.015587585046887398, 0.11905471235513687, -0.17307975888252258, 0.14942960441112518, 0.16933150589466095, -0.027453811839222908, -0.1845313310623169, -0.2360352873802185, 0.16526344418525696, -0.15873336791992188, 0.24107997119426727, 0.05760769918560982, 0.0645584911108017, -0.10907318443059921, -0.20700863003730774, -0.10783021152019501, -0.006267080549150705, 0.24448885023593903, -0.02571520023047924, 0.12906761467456818, 0.15381908416748047, -0.0052011748775839806, -0.4785810708999634, -0.37111160159111023, -0.2500819265842438, -0.2862016260623932, -0.12990149855613708, -0.4361402690410614, 0.010200862772762775, 0.07562252134084702, 0.17151768505573273, -0.5372830629348755, -0.02251196838915348, -0.014197191223502159, 0.041369445621967316, -0.25157973170280457, -0.07094772160053253, 0.1323845535516739, 0.43352651596069336, 0.3880847692489624, 0.03026690147817135, 0.010163327679038048, -0.03415423631668091, -0.25916022062301636, -0.009435047395527363, 0.12862072885036469, -0.08866499364376068, -0.23805248737335205, 0.027624748647212982, -0.07222035527229309, -0.4492203891277313, -0.36059775948524475, -0.15747831761837006, -0.145873561501503, 0.12521304190158844, -0.3602202534675598, -0.12491155415773392, 0.09727766364812851, -0.10095487534999847, 0.40911588072776794, -0.015173152089118958, 0.054535746574401855], [-0.2864736020565033, 0.17743296921253204, -0.038251955062150955, 0.05092522129416466, -0.9733402132987976, -0.19599367678165436, -0.16656893491744995, -0.009141827002167702, -0.028024286031723022, 0.058983590453863144, -0.11316516995429993, -0.17218159139156342, 0.20472551882266998, 0.6270859837532043, -0.014268479309976101, 0.06449398398399353, -0.4991351366043091, -0.2549077570438385, 0.023286661133170128, -0.13431529700756073, 0.42748865485191345, 0.08712457865476608, 0.24594013392925262, -0.047938380390405655, 0.3549252152442932, 0.8337591290473938, 0.30588677525520325, 0.13043853640556335, 0.49264970421791077, 0.7470037341117859, 0.14159496128559113, 0.2957938313484192, 0.08820366114377975, -0.18858668208122253, 0.06408242881298065, 0.13533540070056915, -0.04488401859998703, 0.16649246215820312, -0.22976307570934296, 0.08754575997591019, -0.0832068994641304, 0.2719310224056244, 0.06565354019403458, -0.02055288292467594, 0.24420678615570068, -0.09477405995130539, -0.046505849808454514, -0.01663309521973133, 0.5356218218803406, 1.2779067754745483, 0.01811951957643032, 0.0064917984418570995, 0.5721872448921204, 1.0908739566802979, -0.0838719829916954, -0.17847168445587158, 0.6407012343406677, 0.5890083312988281, -0.11537590622901917, 0.020599130541086197, -0.4159180223941803, 0.13870076835155487, 0.07966463267803192, 0.042358532547950745, 1.1599668264389038, 0.5264047384262085, -0.02951599471271038, 0.044902462512254715, -0.30230244994163513, -0.3742949068546295, -0.12079982459545135, 0.20202305912971497, 0.09871364384889603, 0.6771712303161621, -0.021469706669449806, -0.052566397935152054, 0.5497581958770752, 0.17560315132141113, -0.1273290514945984, 0.03632114455103874], [0.6822028160095215, 0.37383708357810974, 0.08448568731546402, -0.07979530096054077, -0.46640744805336, -0.18135562539100647, 0.1340825855731964, -0.002248891396448016, 0.04946378991007805, -0.1452098935842514, 0.22550785541534424, 0.14406578242778778, 0.10274595767259598, -0.128548264503479, -0.04612032324075699, -0.022188493981957436, 0.38507866859436035, -0.10520537942647934, 0.2370050996541977, 0.06994844228029251, -0.0991823747754097, -0.08979417383670807, -0.0663430318236351, 0.020577825605869293, 0.54964679479599, -0.08820109069347382, 0.044531576335430145, -0.18836303055286407, 0.25683215260505676, 0.05380753427743912, 0.03530747443437576, 0.007774696219712496, -0.06572246551513672, -0.00630588922649622, 0.12845362722873688, -0.02384663186967373, -0.27990013360977173, -0.20451727509498596, -0.06403005868196487, 0.055965445935726166, 0.5045574307441711, 0.2374579757452011, 0.034855253994464874, -0.051422521471977234, 0.10395605117082596, -0.5209500193595886, -0.048093780875205994, -0.2102455347776413, 0.11324472725391388, -0.11385352164506912, -0.06595546752214432, -0.049086011946201324, 0.4233632981777191, 0.19715581834316254, 0.08440308272838593, -0.01175278052687645, -0.017206069082021713, -0.29587677121162415, -0.005392143037170172, -0.05648766830563545, 0.05749843269586563, -0.16076411306858063, -0.1674223244190216, -0.1837897002696991, -0.07301553338766098, -0.14470736682415009, -0.0840408205986023, 0.24628908932209015, 0.49033039808273315, -0.397897869348526, -0.18887533247470856, -0.09555894881486893, 0.13889998197555542, -0.331706166267395, 0.023067820817232132, 0.08712201565504074, -0.1234079971909523, 0.208094984292984, -0.036590397357940674, 0.06106765568256378], [0.3190678060054779, 0.29708921909332275, -0.08060722798109055, -0.16049231588840485, 0.5727647542953491, 0.6629675030708313, 0.11359205096960068, -0.18678365647792816, -0.2980422079563141, 0.22850558161735535, -0.17378899455070496, -0.15652596950531006, 0.14926955103874207, -0.3198338449001312, 0.11378000676631927, 0.20347663760185242, -0.11429207772016525, -0.07287263870239258, -0.43281063437461853, -0.0677768886089325, -0.007209475617855787, -0.060199376195669174, 0.19303110241889954, -0.13494552671909332, 0.024632031098008156, 0.04115072265267372, -0.05906020849943161, -0.07876942306756973, 0.3423515856266022, 0.02545258216559887, -0.032877400517463684, 0.09391982108354568, 0.242624431848526, -0.21415728330612183, 0.11279520392417908, 0.009300664998590946, -0.3911243975162506, -0.13372042775154114, -0.0755728930234909, 0.3380080461502075, 0.1539311408996582, 0.27285560965538025, -0.0894571989774704, 0.16203567385673523, 0.1834530085325241, 0.30447396636009216, 0.2553514540195465, -0.1474904716014862, -0.03761904314160347, 0.440458744764328, -0.031229043379426003, 0.00718968641012907, 0.521184504032135, 0.6900730729103088, -0.030616937205195427, -0.04360999912023544, 0.4106278121471405, -0.5066953301429749, -0.2007744014263153, 0.08731596916913986, 0.32767242193222046, 0.4049483835697174, 0.02264219895005226, -0.07914095371961594, 0.6185784935951233, 0.245229110121727, 0.0792464092373848, 0.11215045303106308, -0.19578057527542114, -0.059339892119169235, 0.052615247666835785, -0.11413457244634628, -0.0979682207107544, 0.3935299217700958, -0.05583852902054787, 0.08966977149248123, 0.42908692359924316, -0.22627852857112885, 0.004220178816467524, 0.11464009433984756], [-0.6955265998840332, 0.014873120002448559, -0.06384860724210739, 0.13425883650779724, -0.6860073804855347, -0.6949011087417603, 0.19769245386123657, 0.05974048376083374, -0.2546111047267914, -0.5619670748710632, 0.02418041042983532, 0.17052878439426422, 0.09955403953790665, 0.46234238147735596, 0.0664810761809349, -0.077059306204319, -0.161802276968956, 0.13672597706317902, 0.24333718419075012, -0.25091859698295593, -0.14465095102787018, -0.17917586863040924, 0.19712084531784058, 0.1495658904314041, -0.038107793778181076, -0.29564425349235535, -0.007769398856908083, 0.11376776546239853, 0.29637831449508667, -0.49422216415405273, 0.15194812417030334, -0.13726702332496643, -0.22198595106601715, -0.09639191627502441, -0.1794312596321106, 0.07355151325464249, 0.36491450667381287, 0.29353639483451843, 0.025082532316446304, -0.14422444999217987, 0.26940399408340454, 0.15602509677410126, 0.011516693979501724, -0.040547020733356476, -1.725881576538086, -0.7112064361572266, 0.12039297819137573, 0.029276782646775246, -0.6622551083564758, -0.6097338199615479, 0.040844619274139404, 0.06321384012699127, -0.6888484358787537, -0.541231632232666, -0.06468938291072845, -0.12907998263835907, -0.12104165554046631, -0.4978986084461212, -0.10416924953460693, -0.440799742937088, -0.47626495361328125, -0.16803884506225586, 0.11024390161037445, -0.0029608248732984066, 1.6818357706069946, 0.03329955413937569, -0.13661600649356842, -0.10510561615228653, -0.30349376797676086, -0.5333142280578613, -0.2377055436372757, 0.08679687231779099, -0.4692894518375397, 0.03036418929696083, -0.062029942870140076, -0.10167215019464493, -0.321719765663147, -0.9472202062606812, -0.14312955737113953, -0.08584674447774887], [0.8257915377616882, 0.4489126205444336, -0.02796955034136772, -0.03539491817355156, 0.19992679357528687, 1.1416441202163696, -0.22087939083576202, 0.1607024073600769, 0.19295932352542877, 0.40413451194763184, 0.07561299204826355, 0.13168016076087952, -0.10613521188497543, -0.24693863093852997, 0.07165844738483429, 0.03678208217024803, 0.35974231362342834, 0.3173367381095886, 0.03436855599284172, -0.023804279044270515, -0.18524838984012604, 0.1631683111190796, 0.05604478716850281, -0.023794589564204216, 0.20103147625923157, 0.021617090329527855, 0.02968841977417469, -0.03541794791817665, -0.20399194955825806, -0.30174899101257324, 0.017921902239322662, -0.22229142487049103, -0.07195429503917694, 0.3181675970554352, -0.06438519060611725, 0.09475996345281601, -0.3291719853878021, -0.13177704811096191, -0.11782453209161758, 0.0582016184926033, -0.10644526034593582, 0.0812174379825592, 0.006296876817941666, 0.23701943457126617, 0.14185883104801178, 0.6918756365776062, 0.007806647103279829, 0.1656222939491272, -0.20764392614364624, 0.32534074783325195, -0.054000768810510635, 0.08836677670478821, 0.5540350079536438, 0.3503822386264801, 0.11566370725631714, -0.17802868783473969, -0.02198772318661213, 0.30137959122657776, 0.08705529570579529, -0.11317339539527893, -0.2255253791809082, -0.03861542418599129, 0.03038915805518627, -0.13226008415222168, -0.3995264172554016, -0.133957639336586, -0.23534215986728668, 0.12309963256120682, 0.40758803486824036, 0.3976922631263733, 0.03948862850666046, 0.2804591655731201, -0.7919812202453613, -0.5979359149932861, -0.005542852450162172, 0.20470848679542542, -0.23746183514595032, 0.38982057571411133, 0.08412550389766693, -0.08140034228563309], [-0.2933986485004425, 0.030625708401203156, -0.20185984671115875, -0.23749472200870514, 0.4192081093788147, -0.09800189733505249, 0.04461881145834923, 0.14422404766082764, 0.312002032995224, 0.8678472638130188, -0.08112026751041412, 0.006461261305958033, -0.3354148864746094, 0.18120531737804413, -0.21914900839328766, 0.08922078460454941, 0.24254700541496277, 0.07670143246650696, -0.07327751815319061, -0.09329181164503098, -0.2794109880924225, 0.21139255166053772, -0.1084131971001625, 0.14189672470092773, -0.3952406346797943, -0.2285839468240738, -0.2386285364627838, 0.19471682608127594, -0.46728217601776123, -0.3224905729293823, -0.1262882947921753, -0.08499331772327423, 0.13320142030715942, 0.11481925845146179, 0.2923080623149872, 0.052997708320617676, 0.11618727445602417, 0.03114839643239975, 0.2991744577884674, 0.011486358009278774, 0.5819910168647766, 0.5008032917976379, -0.005756671074777842, 0.1441858410835266, 0.11142869293689728, 0.6012856364250183, -0.01365691889077425, -0.21430227160453796, -0.6218208074569702, 0.2698749303817749, -0.2883651852607727, 0.22911950945854187, -0.13157570362091064, 0.7023804783821106, 0.11008723825216293, -0.13606753945350647, 0.31076574325561523, 1.481497883796692, 0.3444763123989105, -0.1502217948436737, 0.10201229155063629, 0.0923602283000946, -0.23245449364185333, -0.23020289838314056, -0.028037335723638535, -0.1537366658449173, 0.030807318165898323, 0.3138270378112793, -0.178266704082489, 0.09563089162111282, -0.1830987185239792, 0.11448575556278229, -0.1717202216386795, 0.31070974469184875, -0.38122907280921936, 0.2891569435596466, -0.11662756651639938, -0.1371370106935501, 0.256213515996933, 0.14840717613697052], [-0.7245239019393921, -0.46903061866760254, 0.0027248337864875793, -0.2807563543319702, -0.48707887530326843, -0.08989541232585907, -0.12787370383739471, -0.22385373711585999, 0.16995815932750702, 0.4598492383956909, -0.05080974102020264, 0.18860721588134766, -0.8669208288192749, -0.03458785265684128, -0.12130196392536163, 0.022897331044077873, 0.042036108672618866, -0.07759172469377518, 0.020457495003938675, 0.3149496018886566, 0.1742788851261139, 0.004093423020094633, 0.02187584526836872, 0.1758067011833191, -0.6803910732269287, -0.14605513215065002, -0.06175825744867325, -0.3716321289539337, -0.5728371143341064, -0.19331486523151398, -0.021506693214178085, -0.3110438883304596, 0.33147552609443665, -0.22495190799236298, 0.19785504043102264, -0.17630350589752197, 0.10986819863319397, -0.09925893694162369, -0.11224032193422318, 0.07629760354757309, -0.6492659449577332, -0.13733051717281342, -0.3445050120353699, 0.13607946038246155, 0.1852831244468689, 0.2628249526023865, 0.013702674768865108, 0.32092738151550293, -0.2643853724002838, -0.04183607175946236, 0.10652843862771988, -0.03362259641289711, -0.5143178701400757, 0.35068535804748535, -0.07873024791479111, 0.12849338352680206, -0.6586593389511108, -0.1695675551891327, 0.015426944009959698, -0.056622594594955444, 0.26986587047576904, -0.022140977904200554, -0.03984265774488449, 0.16891302168369293, -0.3835217356681824, -0.26630622148513794, 0.008349752984941006, -0.2449558675289154, -0.20209410786628723, 0.1055309846997261, 0.18776196241378784, 0.16464129090309143, 0.38083139061927795, -0.1357698291540146, 0.23164160549640656, -0.0002333994780201465, 0.18204882740974426, 0.4200075566768646, -0.09267184883356094, 0.18155886232852936], [-0.19979466497898102, -0.24905188381671906, -0.14945031702518463, -0.22994625568389893, -0.8195080161094666, 0.018226606771349907, 0.05564352497458458, -0.21181939542293549, 0.30173903703689575, 0.28794896602630615, -0.052983224391937256, 0.13695386052131653, 0.27528563141822815, 0.422331303358078, -0.11201131343841553, 0.4026716649532318, -0.004907000809907913, 0.11691644042730331, 0.07618989050388336, -0.26876378059387207, 0.06788770109415054, 0.017089856788516045, -0.23813892900943756, -0.353797048330307, -0.04882574826478958, 0.43767547607421875, -0.015853755176067352, -0.250082790851593, 0.14139945805072784, 0.35877901315689087, 0.10376235842704773, 0.18551111221313477, 0.04547646641731262, -0.06730758398771286, -0.07189816236495972, 0.09294068068265915, -0.4320889711380005, 0.1662822812795639, 0.2381967157125473, 0.4237324893474579, -0.18802165985107422, -0.14227129518985748, 0.09743199497461319, -0.07546722143888474, -0.38781893253326416, -0.540353536605835, -0.10622763633728027, -0.35274893045425415, 0.02006429433822632, 0.6623272895812988, 0.20659905672073364, 0.1505555957555771, -0.35755929350852966, 0.446419894695282, -0.04248945787549019, -0.3153367042541504, -0.4248808026313782, -0.6017980575561523, -0.017576098442077637, 0.001274900627322495, -0.08300071209669113, -0.250027596950531, 0.0444958359003067, 0.3218732476234436, 0.8815281391143799, 0.3788501024246216, -0.13126066327095032, 0.23335418105125427, 0.4899616837501526, 0.29444167017936707, 0.028225023299455643, -0.04368842393159866, 0.27953287959098816, 0.04773823171854019, -0.044200316071510315, 0.29060250520706177, 0.15680481493473053, -0.046566445380449295, -0.06859130412340164, -0.15384048223495483], [0.31398382782936096, 0.14247190952301025, 0.11195257306098938, -0.11169297993183136, -0.5477806329727173, -0.45259717106819153, 0.08980561792850494, 0.011212042532861233, -1.169517159461975, -0.06815037131309509, -0.023501981049776077, 0.21356071531772614, 0.1320599466562271, 0.9381511211395264, -0.36316126585006714, 0.13300035893917084, -0.08679347485303879, 0.751035749912262, -0.12602631747722626, 0.06993506848812103, 0.04885835945606232, 0.1928173154592514, -0.14943058788776398, 0.011307356879115105, 0.0005450180033221841, 0.07476000487804413, 0.019617440178990364, -0.32840439677238464, 0.3171786963939667, 0.7585545182228088, -0.29631853103637695, -0.0033180201426148415, -0.12802191078662872, 0.07664965093135834, -0.18692997097969055, -0.13201193511486053, 0.24676936864852905, 1.0626707077026367, -0.2839425802230835, -0.09096678346395493, -0.27724000811576843, 0.7668425440788269, 0.052694398909807205, 0.17940860986709595, -0.9939758777618408, -0.49466216564178467, 0.16457563638687134, 0.13940469920635223, -0.6296228766441345, -0.7974230647087097, 0.14602981507778168, 0.09453395009040833, -0.5599297881126404, -2.0016024112701416, 0.09338457882404327, 0.4043267071247101, 0.25168314576148987, 1.3284482955932617, -0.24033650755882263, 0.31807729601860046, -0.7737785577774048, -0.29639187455177307, -0.06978519260883331, -0.06177063286304474, 0.1340271383523941, 0.09269317984580994, -0.12395176291465759, 0.3872618079185486, -0.4067542552947998, 0.043531663715839386, -0.09538226574659348, 0.018318846821784973, -0.10648062825202942, -0.16968020796775818, 0.14752061665058136, 0.19238564372062683, -0.23031169176101685, -0.05423601716756821, -0.12219800055027008, -0.1151980310678482], [-0.3209632635116577, -0.3292835056781769, -0.01680731773376465, 0.42181798815727234, 0.14862558245658875, 0.22098536789417267, 0.08398635685443878, 0.1181090697646141, -0.9268044233322144, -0.36627039313316345, -0.26003924012184143, -0.04782471805810928, 0.15310795605182648, 0.20387466251850128, 0.12461332976818085, -0.33502137660980225, -0.084920234978199, 0.027245596051216125, -0.23187953233718872, -0.013893109746277332, -0.31889912486076355, 0.0894746407866478, -0.15896451473236084, 0.10833509266376495, 0.03099876269698143, 0.2630688548088074, -0.0014826995320618153, -0.055367257446050644, 0.6858620643615723, 0.31614944338798523, 0.14927002787590027, 0.06619714945554733, 0.02031712606549263, 0.041987910866737366, -0.01169019378721714, 0.04333076626062393, -0.2493024468421936, 0.01914515160024166, 0.08171293139457703, -0.03391968458890915, -0.11654870957136154, -0.013777739368379116, -0.04144847020506859, 0.026055127382278442, 0.6134640574455261, 0.024222886189818382, 0.1315220445394516, -0.17717115581035614, 0.6793741583824158, 0.5194164514541626, 0.14687766134738922, -0.070929616689682, -0.09429358690977097, 0.21948623657226562, 0.1292070597410202, 0.19022569060325623, 0.08079440146684647, -0.394521564245224, -0.27635058760643005, -0.12988197803497314, 1.1002858877182007, 0.43540477752685547, -0.055030178278684616, 0.09203717857599258, 1.5791171789169312, 0.4823032021522522, -0.12432797253131866, -0.30730846524238586, -0.2443915158510208, -0.3370468020439148, 0.26013872027397156, 0.14665880799293518, 0.005368086043745279, 0.4612365961074829, 0.11453665792942047, -0.3097560405731201, 0.37245070934295654, -0.10294625908136368, -0.07542897760868073, 0.149982750415802], [0.8303688764572144, -0.025636378675699234, 0.1037101075053215, 0.20336584746837616, 0.7341481447219849, 0.5047836899757385, -0.07860930263996124, 0.2638006806373596, 0.11283499002456665, 1.1347273588180542, 0.08557360619306564, 0.034847747534513474, -0.24541902542114258, -0.26227572560310364, 0.03434426710009575, -0.06563824415206909, 0.273358017206192, 0.1780276745557785, -0.05947818234562874, -0.060307908803224564, 0.25227004289627075, 0.22115272283554077, 0.11381255835294724, 0.20979568362236023, 0.3044087290763855, -0.17656897008419037, 0.08486166596412659, -0.06969522684812546, 0.10423557460308075, -0.4163327217102051, 0.21835161745548248, -0.05156061425805092, -0.4693771302700043, -0.09843635559082031, 0.03251200169324875, -0.426743745803833, -0.43064090609550476, -0.07869212329387665, -0.1616528183221817, 0.09651552140712738, -0.2585352063179016, -0.06135134398937225, -0.0913802981376648, -0.28805431723594666, 0.23156005144119263, -0.00849691592156887, 0.035741206258535385, -0.0915035679936409, 0.08130637556314468, -0.010868771933019161, 0.060585469007492065, 0.11339132487773895, 0.5085437893867493, 0.4344814717769623, -0.09164302796125412, 0.2541182041168213, 0.019051536917686462, -0.22568517923355103, 0.05439259484410286, 0.0034087831154465675, 0.1114928275346756, 0.14927950501441956, -0.028686923906207085, 0.042151663452386856, -0.0230563972145319, -0.05182516574859619, -0.02256970852613449, 0.11869789659976959, -0.19516190886497498, -0.12381377071142197, -0.07847389578819275, 0.13448548316955566, -0.35642263293266296, -0.2770300507545471, 0.04383907839655876, -0.13906452059745789, -0.227648064494133, 0.3601763844490051, -0.04474138095974922, -0.1570855677127838], [0.7527938485145569, 0.213477224111557, 0.06804222613573074, 0.058389004319906235, 0.09860548377037048, 0.37478846311569214, 0.024445954710245132, 0.030651237815618515, 0.2702844440937042, 0.40126243233680725, -0.030636290088295937, -0.018900247290730476, 0.011814811266958714, -0.14783383905887604, 0.14029744267463684, 0.09462881833314896, 0.38170716166496277, 0.26881301403045654, -0.11516156047582626, -0.0017600507708266377, -0.10349218547344208, 0.15178202092647552, 0.1857060045003891, -0.09328711777925491, 0.09436610341072083, -0.0619334876537323, 0.17385834455490112, 0.318964421749115, 0.09630732983350754, -0.29549217224121094, -0.03719770535826683, -0.24472546577453613, 0.17259690165519714, -0.03633495047688484, 0.0028447327204048634, -0.12235678732395172, -0.35821419954299927, -0.12392901629209518, -0.09606494009494781, -0.09830425679683685, -0.17928719520568848, -0.08839999884366989, 0.08760695159435272, -0.1509407013654709, -0.004635223187506199, 0.025221532210707664, 0.16302922368049622, 0.2597518563270569, -0.30424872040748596, 0.17995977401733398, 0.019548943266272545, -0.09666857868432999, 0.22888973355293274, 0.20505475997924805, 0.10524292290210724, 0.11378984153270721, -0.056963685899972916, 0.7178206443786621, -0.17479129135608673, -0.23846015334129333, -0.16884514689445496, -0.2828240692615509, -0.12281661480665207, 0.08943076431751251, -0.24157468974590302, -0.03382553160190582, -0.2945325970649719, -0.039644505828619, 0.12932297587394714, 0.339418888092041, -0.115387462079525, 0.1540507823228836, -0.1005839928984642, -0.14242780208587646, 0.014233320951461792, -0.09541779011487961, -0.15797053277492523, 0.3011173605918884, 0.1376962512731552, -0.1083919033408165], [-0.09814883768558502, -0.026414087042212486, -0.04083547741174698, -0.2274242788553238, 0.3180897533893585, 0.7898029088973999, -0.03659863397479057, 0.03632029518485069, -0.5994771122932434, 0.0016354923136532307, -0.37442445755004883, -0.0615043006837368, 0.07820194959640503, 0.2629726827144623, 0.15215420722961426, 0.204665407538414, -0.5408555269241333, -0.20379123091697693, -0.2220892608165741, -0.14328254759311676, -0.649055004119873, 0.18532249331474304, 0.10227855294942856, -0.028371063992381096, 0.09097842872142792, -0.08793394267559052, -0.1121441051363945, 0.01306490320712328, 0.5825935006141663, 0.6621190905570984, 0.05994472652673721, 0.17158855497837067, 0.07916678488254547, -0.06097846105694771, 0.14573010802268982, 0.05418776720762253, -0.19536079466342926, 0.08582665026187897, 0.026614977046847343, 0.22427919507026672, -0.018773607909679413, -0.16671131551265717, -0.05137169733643532, 0.007581834681332111, 0.44524839520454407, 0.7654464840888977, -0.030399058014154434, 0.0627809688448906, 0.6006051898002625, 1.261749505996704, 0.11304892599582672, 0.06915964931249619, 0.28851908445358276, 0.32502105832099915, 0.16493234038352966, 0.01055863220244646, 0.4239652156829834, -0.8863924145698547, -0.12284731864929199, 0.28715980052948, 0.4097130596637726, 0.8125854730606079, 0.05675482004880905, -0.09511930495500565, 0.6026129722595215, 0.39861196279525757, 0.30690547823905945, 0.1695357710123062, -0.275186151266098, 0.07439694553613663, 0.09729334712028503, -0.12019365280866623, 0.13841527700424194, 0.12527604401111603, 0.08834011852741241, 0.03948028013110161, 0.25490832328796387, -0.057561684399843216, 0.104869045317173, 0.03739191219210625], [0.08095185458660126, -0.3599953353404999, -0.027967460453510284, 0.19576609134674072, 1.0338847637176514, 0.0009674307657405734, -0.018109852448105812, -0.33088594675064087, -0.05953545495867729, -0.22378261387348175, 0.06666401773691177, -0.19012965261936188, -0.9210620522499084, -0.09414834529161453, -0.006222343537956476, 0.3447566032409668, 0.2827480435371399, 0.1311122626066208, -0.07554072886705399, -0.11222907900810242, -0.009069355204701424, -0.05684782192111015, -0.11587941646575928, -0.11819092929363251, -0.4723542332649231, 0.0003818974073510617, 0.14324064552783966, 0.05947401747107506, -0.20531079173088074, -0.20619267225265503, 0.12413778901100159, 0.08795379102230072, 0.17254692316055298, -0.18972885608673096, 0.09743749350309372, -0.3657172620296478, 0.2910973131656647, 0.0970468744635582, -0.07222834974527359, 0.10527005046606064, 0.2286253422498703, -0.1850515604019165, -0.26344406604766846, -0.016941776499152184, 0.04964775964617729, 0.9447655081748962, 0.1277228742837906, -0.2662535309791565, -0.5210998058319092, -0.5488176345825195, -0.1686886101961136, 0.1159355640411377, -0.3716755211353302, -0.03409707918763161, -0.02519102767109871, 0.008735098876059055, -0.15520164370536804, 0.20087961852550507, 0.005558405537158251, 0.06638507544994354, -0.08438079059123993, 0.025166582316160202, -0.13953951001167297, 0.19637253880500793, -0.23566600680351257, -0.005595750641077757, 0.22433346509933472, -0.13806620240211487, -0.13203567266464233, 0.4367265999317169, -0.03804444521665573, -0.37045368552207947, -0.052164819091558456, 0.026229770854115486, 0.004934723488986492, 0.17858119308948517, -0.2542590796947479, -0.24388207495212555, 0.05551854893565178, -0.22047296166419983]], "wv_to_output.0.bias": [0.017268983647227287, -0.05936340242624283, -0.185763418674469, 0.3114194869995117, -0.24217401444911957, -0.02218259871006012, 0.0959499329328537, 0.16695459187030792, -0.3103605806827545, -0.19723711907863617, -0.08517973124980927, -0.10279752314090729, 0.023552676662802696, -0.16847273707389832, -0.046086911112070084, 0.04171121120452881, 0.027307018637657166, 0.014465945772826672, 0.14395861327648163, 0.05243001505732536, 0.10070820897817612, -0.11765068769454956, -0.0666777566075325, 0.1850740611553192, 0.20811350643634796, 0.05733036622405052, -0.08080872893333435, -0.14526651799678802, 0.02644437365233898, 0.0016603583935648203, -0.15348626673221588, -0.12343382835388184], "wv_to_output.2.weight": [[0.7904831171035767, 1.7862653732299805, 1.2133010625839233, -0.37717029452323914, 1.1241388320922852, 0.8184452652931213, -0.8810133337974548, 0.9600400328636169, 2.418933153152466, 0.7985180020332336, 0.3972322344779968, -1.4908936023712158, -1.024385690689087, 2.1895835399627686, 0.6298815011978149, -0.3530619442462921, 1.4209153652191162, 0.5801895260810852, -1.4588786363601685, 0.4846172034740448, -0.877031683921814, -1.809285283088684, 0.738312840461731, -0.8348206281661987, -0.8149470090866089, -2.461527109146118, 1.3114134073257446, -2.1610310077667236, 0.9878913164138794, 1.2265536785125732, -1.2404663562774658, -1.162753939628601]], "wv_to_output.2.bias": [-0.4886404871940613]}